=== Run information ===

Scheme:       weka.classifiers.misc.InputMappedClassifier -I -trim -W weka.classifiers.trees.J48 -- -C 0.25 -M 2
Relation:     postoperative-patient-data-weka.filters.unsupervised.attribute.Remove-R3,5,8
Instances:    54
Attributes:   6
              L-CORE
              L-SURF
              L-BP
              CORE-STBL
              BP-STBL
              decision
Test mode:    user supplied test set:  size unknown (reading incrementally)

=== Classifier model (full training set) ===

InputMappedClassifier:

J48 pruned tree
------------------
: A (54.0/18.0)

Number of Leaves  : 	1

Size of the tree : 	1

Attribute mappings:

Model attributes     	    Incoming attributes
---------------------	    ----------------
(nominal) L-CORE     	--> 1 (nominal) L-CORE
(nominal) L-SURF     	--> 2 (nominal) L-SURF
(nominal) L-BP       	--> 4 (nominal) L-BP
(nominal) CORE-STBL  	--> 6 (nominal) CORE-STBL
(nominal) BP-STBL    	--> 7 (nominal) BP-STBL
(nominal) decision   	--> 9 (nominal) decision


Time taken to build model: 0 seconds

=== Evaluation on test set ===

Time taken to test model on supplied test set: 0.06 seconds

=== Summary ===

Correctly Classified Instances          28               77.7778 %
Incorrectly Classified Instances         8               22.2222 %
Kappa statistic                          0     
Mean absolute error                      0.2798
Root mean squared error                  0.3575
Relative absolute error                 96.997  %
Root relative squared error             99.4298 %
Total Number of Instances               36     

=== Detailed Accuracy By Class ===

                 TP Rate  FP Rate  Precision  Recall   F-Measure  MCC      ROC Area  PRC Area  Class
                 1.000    1.000    0.778      1.000    0.875      ?        0.500     0.778     A
                 0.000    0.000    ?          0.000    ?          ?        0.500     0.028     I
                 0.000    0.000    ?          0.000    ?          ?        0.500     0.194     S
Weighted Avg.    0.778    0.778    ?          0.778    ?          ?        0.500     0.644     

=== Confusion Matrix ===

  a  b  c   <-- classified as
 28  0  0 |  a = A
  1  0  0 |  b = I
  7  0  0 |  c = S

